solver_type L2R_LR
nr_class 2
label 1 0
nr_feature 63
bias 0
w
-0.00291346838061579 
-0.01075398941967299 
-0.05133405832477413 
-0.0551670373471643 
-0.07033043077268632 
-0.07348150281274182 
-0.06621801362066705 
-0.02681804287676229 
-0.01976460041031028 
-0.009607749115139843 
-0.00716401831533435 
-0.01260903637168714 
-0.01377096758606002 
-0.01892179720228284 
-0.03973464807767329 
-0.08981888401473541 
-0.1949969718099846 
-0.179278695646691 
-0.204542302164849 
-0.2290557093815813 
-0.2336483914752094 
-0.2285678229631729 
-0.268238349915278 
-0.2732296094746247 
-0.2768065277381211 
-0.2846004590878289 
-0.2892121921239759 
-0.2758142351035557 
-0.2800017161574385 
-0.2851925573134327 
-0.2339996299208774 
-0.1317071395238609 
-0.1267271768076666 
-0.1053490025588396 
-0.1007471613886858 
-0.07766209810259882 
-0.08978414909173114 
-0.06078274368988242 
-0.05547646510337502 
-0.08823400310054605 
-0.1391017262748432 
-0.135776227645981 
-0.1076331208535529 
-0.05723861172158136 
-0.05640811638697002 
-0.05091018497541777 
-0.05638308136895191 
-0.04768379885894071 
-0.04332833946110302 
-0.04190433035165395 
-0.05708642915946082 
-0.05119343104780595 
-0.03637890778543471 
-0.02509134658511534 
-0.01253360522759472 
-0.02178336527034875 
-0.01690127589505208 
-0.009592567043336419 
0.002546895694539589 
0.003010168361799876 
0.004353018930724205 
0.005721264940216404 
0.008499386797774513 
0.001271925852043991 
